digraph Tree {
node [shape=box] ;
0 [label="X[0] <= 0.5\ngini = 0.473\nsamples = 891\nvalue = [549, 342]"] ;
1 [label="X[2] <= 2.5\ngini = 0.383\nsamples = 314\nvalue = [81, 233]"] ;
0 -> 1 [labeldistance=2.5, labelangle=45, headlabel="True"] ;
2 [label="X[3] <= 28.856\ngini = 0.1\nsamples = 170\nvalue = [9, 161]"] ;
1 -> 2 ;
3 [label="X[3] <= 28.231\ngini = 0.18\nsamples = 70\nvalue = [7, 63]"] ;
2 -> 3 ;
4 [label="X[1] <= 56.0\ngini = 0.159\nsamples = 69\nvalue = [6, 63]"] ;
3 -> 4 ;
5 [label="X[4] <= 0.5\ngini = 0.138\nsamples = 67\nvalue = [5, 62]"] ;
4 -> 5 ;
6 [label="X[3] <= 13.25\ngini = 0.085\nsamples = 45\nvalue = [2, 43]"] ;
5 -> 6 ;
7 [label="X[3] <= 12.825\ngini = 0.147\nsamples = 25\nvalue = [2, 23]"] ;
6 -> 7 ;
8 [label="gini = 0.0\nsamples = 11\nvalue = [0, 11]"] ;
7 -> 8 ;
9 [label="X[1] <= 26.0\ngini = 0.245\nsamples = 14\nvalue = [2, 12]"] ;
7 -> 9 ;
10 [label="X[1] <= 21.0\ngini = 0.444\nsamples = 3\nvalue = [1, 2]"] ;
9 -> 10 ;
11 [label="gini = 0.0\nsamples = 1\nvalue = [0, 1]"] ;
10 -> 11 ;
12 [label="gini = 0.5\nsamples = 2\nvalue = [1, 1]"] ;
10 -> 12 ;
13 [label="X[1] <= 37.0\ngini = 0.165\nsamples = 11\nvalue = [1, 10]"] ;
9 -> 13 ;
14 [label="gini = 0.0\nsamples = 8\nvalue = [0, 8]"] ;
13 -> 14 ;
15 [label="X[1] <= 39.0\ngini = 0.444\nsamples = 3\nvalue = [1, 2]"] ;
13 -> 15 ;
16 [label="gini = 0.0\nsamples = 1\nvalue = [1, 0]"] ;
15 -> 16 ;
17 [label="gini = 0.0\nsamples = 2\nvalue = [0, 2]"] ;
15 -> 17 ;
18 [label="gini = 0.0\nsamples = 20\nvalue = [0, 20]"] ;
6 -> 18 ;
19 [label="X[1] <= 25.0\ngini = 0.236\nsamples = 22\nvalue = [3, 19]"] ;
5 -> 19 ;
20 [label="gini = 0.0\nsamples = 7\nvalue = [0, 7]"] ;
19 -> 20 ;
21 [label="X[1] <= 27.5\ngini = 0.32\nsamples = 15\nvalue = [3, 12]"] ;
19 -> 21 ;
22 [label="X[3] <= 17.429\ngini = 0.444\nsamples = 3\nvalue = [2, 1]"] ;
21 -> 22 ;
23 [label="gini = 0.0\nsamples = 1\nvalue = [0, 1]"] ;
22 -> 23 ;
24 [label="gini = 0.0\nsamples = 2\nvalue = [2, 0]"] ;
22 -> 24 ;
25 [label="X[1] <= 43.0\ngini = 0.153\nsamples = 12\nvalue = [1, 11]"] ;
21 -> 25 ;
26 [label="gini = 0.0\nsamples = 9\nvalue = [0, 9]"] ;
25 -> 26 ;
27 [label="X[5] <= 0.5\ngini = 0.444\nsamples = 3\nvalue = [1, 2]"] ;
25 -> 27 ;
28 [label="gini = 0.0\nsamples = 1\nvalue = [1, 0]"] ;
27 -> 28 ;
29 [label="gini = 0.0\nsamples = 2\nvalue = [0, 2]"] ;
27 -> 29 ;
30 [label="X[1] <= 57.5\ngini = 0.5\nsamples = 2\nvalue = [1, 1]"] ;
4 -> 30 ;
31 [label="gini = 0.0\nsamples = 1\nvalue = [1, 0]"] ;
30 -> 31 ;
32 [label="gini = 0.0\nsamples = 1\nvalue = [0, 1]"] ;
30 -> 32 ;
33 [label="gini = 0.0\nsamples = 1\nvalue = [1, 0]"] ;
3 -> 33 ;
34 [label="X[5] <= 1.5\ngini = 0.039\nsamples = 100\nvalue = [2, 98]"] ;
2 -> 34 ;
35 [label="gini = 0.0\nsamples = 84\nvalue = [0, 84]"] ;
34 -> 35 ;
36 [label="X[1] <= 2.5\ngini = 0.219\nsamples = 16\nvalue = [2, 14]"] ;
34 -> 36 ;
37 [label="gini = 0.0\nsamples = 1\nvalue = [1, 0]"] ;
36 -> 37 ;
38 [label="X[1] <= 24.5\ngini = 0.124\nsamples = 15\nvalue = [1, 14]"] ;
36 -> 38 ;
39 [label="gini = 0.0\nsamples = 10\nvalue = [0, 10]"] ;
38 -> 39 ;
40 [label="X[1] <= 28.0\ngini = 0.32\nsamples = 5\nvalue = [1, 4]"] ;
38 -> 40 ;
41 [label="gini = 0.0\nsamples = 1\nvalue = [1, 0]"] ;
40 -> 41 ;
42 [label="gini = 0.0\nsamples = 4\nvalue = [0, 4]"] ;
40 -> 42 ;
43 [label="X[3] <= 23.35\ngini = 0.5\nsamples = 144\nvalue = [72, 72]"] ;
1 -> 43 ;
44 [label="X[1] <= 16.5\ngini = 0.484\nsamples = 117\nvalue = [48, 69]"] ;
43 -> 44 ;
45 [label="X[4] <= 2.5\ngini = 0.404\nsamples = 57\nvalue = [16, 41]"] ;
44 -> 45 ;
46 [label="X[3] <= 15.373\ngini = 0.38\nsamples = 55\nvalue = [14, 41]"] ;
45 -> 46 ;
47 [label="X[3] <= 13.935\ngini = 0.45\nsamples = 41\nvalue = [14, 27]"] ;
46 -> 47 ;
48 [label="X[5] <= 1.5\ngini = 0.382\nsamples = 35\nvalue = [9, 26]"] ;
47 -> 48 ;
49 [label="X[3] <= 8.04\ngini = 0.36\nsamples = 34\nvalue = [8, 26]"] ;
48 -> 49 ;
50 [label="X[3] <= 7.681\ngini = 0.269\nsamples = 25\nvalue = [4, 21]"] ;
49 -> 50 ;
51 [label="X[3] <= 7.39\ngini = 0.444\nsamples = 6\nvalue = [2, 4]"] ;
50 -> 51 ;
52 [label="gini = 0.0\nsamples = 4\nvalue = [0, 4]"] ;
51 -> 52 ;
53 [label="gini = 0.0\nsamples = 2\nvalue = [2, 0]"] ;
51 -> 53 ;
54 [label="X[1] <= 7.0\ngini = 0.188\nsamples = 19\nvalue = [2, 17]"] ;
50 -> 54 ;
55 [label="X[3] <= 7.769\ngini = 0.124\nsamples = 15\nvalue = [1, 14]"] ;
54 -> 55 ;
56 [label="X[3] <= 7.744\ngini = 0.18\nsamples = 10\nvalue = [1, 9]"] ;
55 -> 56 ;
57 [label="gini = 0.0\nsamples = 2\nvalue = [0, 2]"] ;
56 -> 57 ;
58 [label="gini = 0.219\nsamples = 8\nvalue = [1, 7]"] ;
56 -> 58 ;
59 [label="gini = 0.0\nsamples = 5\nvalue = [0, 5]"] ;
55 -> 59 ;
60 [label="X[1] <= 14.5\ngini = 0.375\nsamples = 4\nvalue = [1, 3]"] ;
54 -> 60 ;
61 [label="gini = 0.0\nsamples = 1\nvalue = [1, 0]"] ;
60 -> 61 ;
62 [label="gini = 0.0\nsamples = 3\nvalue = [0, 3]"] ;
60 -> 62 ;
63 [label="X[3] <= 10.798\ngini = 0.494\nsamples = 9\nvalue = [4, 5]"] ;
49 -> 63 ;
64 [label="gini = 0.0\nsamples = 4\nvalue = [4, 0]"] ;
63 -> 64 ;
65 [label="gini = 0.0\nsamples = 5\nvalue = [0, 5]"] ;
63 -> 65 ;
66 [label="gini = 0.0\nsamples = 1\nvalue = [1, 0]"] ;
48 -> 66 ;
67 [label="X[1] <= 14.75\ngini = 0.278\nsamples = 6\nvalue = [5, 1]"] ;
47 -> 67 ;
68 [label="gini = 0.0\nsamples = 5\nvalue = [5, 0]"] ;
67 -> 68 ;
69 [label="gini = 0.0\nsamples = 1\nvalue = [0, 1]"] ;
67 -> 69 ;
70 [label="gini = 0.0\nsamples = 14\nvalue = [0, 14]"] ;
46 -> 70 ;
71 [label="gini = 0.0\nsamples = 2\nvalue = [2, 0]"] ;
45 -> 71 ;
72 [label="X[1] <= 36.5\ngini = 0.498\nsamples = 60\nvalue = [32, 28]"] ;
44 -> 72 ;
73 [label="X[1] <= 32.5\ngini = 0.5\nsamples = 53\nvalue = [26, 27]"] ;
72 -> 73 ;
74 [label="X[5] <= 1.5\ngini = 0.499\nsamples = 50\nvalue = [26, 24]"] ;
73 -> 74 ;
75 [label="X[3] <= 7.887\ngini = 0.491\nsamples = 44\nvalue = [25, 19]"] ;
74 -> 75 ;
76 [label="X[1] <= 28.25\ngini = 0.469\nsamples = 16\nvalue = [6, 10]"] ;
75 -> 76 ;
77 [label="X[1] <= 18.5\ngini = 0.408\nsamples = 14\nvalue = [4, 10]"] ;
76 -> 77 ;
78 [label="X[3] <= 7.123\ngini = 0.444\nsamples = 3\nvalue = [2, 1]"] ;
77 -> 78 ;
79 [label="gini = 0.0\nsamples = 1\nvalue = [1, 0]"] ;
78 -> 79 ;
80 [label="X[3] <= 7.635\ngini = 0.5\nsamples = 2\nvalue = [1, 1]"] ;
78 -> 80 ;
81 [label="gini = 0.0\nsamples = 1\nvalue = [0, 1]"] ;
80 -> 81 ;
82 [label="gini = 0.0\nsamples = 1\nvalue = [1, 0]"] ;
80 -> 82 ;
83 [label="X[1] <= 24.0\ngini = 0.298\nsamples = 11\nvalue = [2, 9]"] ;
77 -> 83 ;
84 [label="X[1] <= 21.5\ngini = 0.198\nsamples = 9\nvalue = [1, 8]"] ;
83 -> 84 ;
85 [label="X[3] <= 7.802\ngini = 0.375\nsamples = 4\nvalue = [1, 3]"] ;
84 -> 85 ;
86 [label="X[3] <= 7.7\ngini = 0.5\nsamples = 2\nvalue = [1, 1]"] ;
85 -> 86 ;
87 [label="gini = 0.0\nsamples = 1\nvalue = [0, 1]"] ;
86 -> 87 ;
88 [label="gini = 0.0\nsamples = 1\nvalue = [1, 0]"] ;
86 -> 88 ;
89 [label="gini = 0.0\nsamples = 2\nvalue = [0, 2]"] ;
85 -> 89 ;
90 [label="gini = 0.0\nsamples = 5\nvalue = [0, 5]"] ;
84 -> 90 ;
91 [label="X[3] <= 7.815\ngini = 0.5\nsamples = 2\nvalue = [1, 1]"] ;
83 -> 91 ;
92 [label="gini = 0.0\nsamples = 1\nvalue = [1, 0]"] ;
91 -> 92 ;
93 [label="gini = 0.0\nsamples = 1\nvalue = [0, 1]"] ;
91 -> 93 ;
94 [label="gini = 0.0\nsamples = 2\nvalue = [2, 0]"] ;
76 -> 94 ;
95 [label="X[4] <= 0.5\ngini = 0.436\nsamples = 28\nvalue = [19, 9]"] ;
75 -> 95 ;
96 [label="X[1] <= 25.0\ngini = 0.492\nsamples = 16\nvalue = [9, 7]"] ;
95 -> 96 ;
97 [label="X[1] <= 19.0\ngini = 0.346\nsamples = 9\nvalue = [7, 2]"] ;
96 -> 97 ;
98 [label="X[3] <= 12.148\ngini = 0.5\nsamples = 4\nvalue = [2, 2]"] ;
97 -> 98 ;
99 [label="gini = 0.0\nsamples = 2\nvalue = [0, 2]"] ;
98 -> 99 ;
100 [label="gini = 0.0\nsamples = 2\nvalue = [2, 0]"] ;
98 -> 100 ;
101 [label="gini = 0.0\nsamples = 5\nvalue = [5, 0]"] ;
97 -> 101 ;
102 [label="X[3] <= 7.91\ngini = 0.408\nsamples = 7\nvalue = [2, 5]"] ;
96 -> 102 ;
103 [label="gini = 0.0\nsamples = 1\nvalue = [1, 0]"] ;
102 -> 103 ;
104 [label="X[1] <= 28.5\ngini = 0.278\nsamples = 6\nvalue = [1, 5]"] ;
102 -> 104 ;
105 [label="gini = 0.0\nsamples = 3\nvalue = [0, 3]"] ;
104 -> 105 ;
106 [label="X[3] <= 8.673\ngini = 0.444\nsamples = 3\nvalue = [1, 2]"] ;
104 -> 106 ;
107 [label="gini = 0.0\nsamples = 1\nvalue = [1, 0]"] ;
106 -> 107 ;
108 [label="gini = 0.0\nsamples = 2\nvalue = [0, 2]"] ;
106 -> 108 ;
109 [label="X[3] <= 19.263\ngini = 0.278\nsamples = 12\nvalue = [10, 2]"] ;
95 -> 109 ;
110 [label="X[1] <= 24.5\ngini = 0.165\nsamples = 11\nvalue = [10, 1]"] ;
109 -> 110 ;
111 [label="X[1] <= 22.5\ngini = 0.32\nsamples = 5\nvalue = [4, 1]"] ;
110 -> 111 ;
112 [label="gini = 0.0\nsamples = 4\nvalue = [4, 0]"] ;
111 -> 112 ;
113 [label="gini = 0.0\nsamples = 1\nvalue = [0, 1]"] ;
111 -> 113 ;
114 [label="gini = 0.0\nsamples = 6\nvalue = [6, 0]"] ;
110 -> 114 ;
115 [label="gini = 0.0\nsamples = 1\nvalue = [0, 1]"] ;
109 -> 115 ;
116 [label="X[5] <= 3.5\ngini = 0.278\nsamples = 6\nvalue = [1, 5]"] ;
74 -> 116 ;
117 [label="gini = 0.0\nsamples = 5\nvalue = [0, 5]"] ;
116 -> 117 ;
118 [label="gini = 0.0\nsamples = 1\nvalue = [1, 0]"] ;
116 -> 118 ;
119 [label="gini = 0.0\nsamples = 3\nvalue = [0, 3]"] ;
73 -> 119 ;
120 [label="X[1] <= 55.0\ngini = 0.245\nsamples = 7\nvalue = [6, 1]"] ;
72 -> 120 ;
121 [label="gini = 0.0\nsamples = 6\nvalue = [6, 0]"] ;
120 -> 121 ;
122 [label="gini = 0.0\nsamples = 1\nvalue = [0, 1]"] ;
120 -> 122 ;
123 [label="X[5] <= 0.5\ngini = 0.198\nsamples = 27\nvalue = [24, 3]"] ;
43 -> 123 ;
124 [label="gini = 0.0\nsamples = 1\nvalue = [0, 1]"] ;
123 -> 124 ;
125 [label="X[3] <= 31.331\ngini = 0.142\nsamples = 26\nvalue = [24, 2]"] ;
123 -> 125 ;
126 [label="gini = 0.0\nsamples = 15\nvalue = [15, 0]"] ;
125 -> 126 ;
127 [label="X[3] <= 32.881\ngini = 0.298\nsamples = 11\nvalue = [9, 2]"] ;
125 -> 127 ;
128 [label="gini = 0.0\nsamples = 2\nvalue = [0, 2]"] ;
127 -> 128 ;
129 [label="gini = 0.0\nsamples = 9\nvalue = [9, 0]"] ;
127 -> 129 ;
130 [label="X[3] <= 26.269\ngini = 0.306\nsamples = 577\nvalue = [468, 109]"] ;
0 -> 130 [labeldistance=2.5, labelangle=-45, headlabel="False"] ;
131 [label="X[5] <= 0.5\ngini = 0.226\nsamples = 415\nvalue = [361, 54]"] ;
130 -> 131 ;
132 [label="X[1] <= 32.5\ngini = 0.184\nsamples = 380\nvalue = [341, 39]"] ;
131 -> 132 ;
133 [label="X[1] <= 30.75\ngini = 0.205\nsamples = 284\nvalue = [251, 33]"] ;
132 -> 133 ;
134 [label="X[1] <= 24.75\ngini = 0.181\nsamples = 268\nvalue = [241, 27]"] ;
133 -> 134 ;
135 [label="X[3] <= 7.133\ngini = 0.158\nsamples = 197\nvalue = [180, 17]"] ;
134 -> 135 ;
136 [label="gini = 0.0\nsamples = 20\nvalue = [20, 0]"] ;
135 -> 136 ;
137 [label="X[3] <= 7.183\ngini = 0.174\nsamples = 177\nvalue = [160, 17]"] ;
135 -> 137 ;
138 [label="gini = 0.0\nsamples = 1\nvalue = [0, 1]"] ;
137 -> 138 ;
139 [label="X[3] <= 7.24\ngini = 0.165\nsamples = 176\nvalue = [160, 16]"] ;
137 -> 139 ;
140 [label="X[1] <= 10.0\ngini = 0.32\nsamples = 15\nvalue = [12, 3]"] ;
139 -> 140 ;
141 [label="X[3] <= 7.227\ngini = 0.165\nsamples = 11\nvalue = [10, 1]"] ;
140 -> 141 ;
142 [label="gini = 0.0\nsamples = 5\nvalue = [5, 0]"] ;
141 -> 142 ;
143 [label="gini = 0.278\nsamples = 6\nvalue = [5, 1]"] ;
141 -> 143 ;
144 [label="X[1] <= 21.0\ngini = 0.5\nsamples = 4\nvalue = [2, 2]"] ;
140 -> 144 ;
145 [label="gini = 0.0\nsamples = 1\nvalue = [0, 1]"] ;
144 -> 145 ;
146 [label="X[3] <= 7.227\ngini = 0.444\nsamples = 3\nvalue = [2, 1]"] ;
144 -> 146 ;
147 [label="gini = 0.0\nsamples = 1\nvalue = [0, 1]"] ;
146 -> 147 ;
148 [label="gini = 0.0\nsamples = 2\nvalue = [2, 0]"] ;
146 -> 148 ;
149 [label="X[1] <= 21.5\ngini = 0.148\nsamples = 161\nvalue = [148, 13]"] ;
139 -> 149 ;
150 [label="X[4] <= 0.5\ngini = 0.178\nsamples = 132\nvalue = [119, 13]"] ;
149 -> 150 ;
151 [label="X[2] <= 2.5\ngini = 0.154\nsamples = 119\nvalue = [109, 10]"] ;
150 -> 151 ;
152 [label="X[3] <= 14.456\ngini = 0.355\nsamples = 13\nvalue = [10, 3]"] ;
151 -> 152 ;
153 [label="X[1] <= 8.0\ngini = 0.444\nsamples = 9\nvalue = [6, 3]"] ;
152 -> 153 ;
154 [label="gini = 0.0\nsamples = 2\nvalue = [0, 2]"] ;
153 -> 154 ;
155 [label="X[1] <= 18.5\ngini = 0.245\nsamples = 7\nvalue = [6, 1]"] ;
153 -> 155 ;
156 [label="gini = 0.0\nsamples = 4\nvalue = [4, 0]"] ;
155 -> 156 ;
157 [label="X[3] <= 11.75\ngini = 0.444\nsamples = 3\nvalue = [2, 1]"] ;
155 -> 157 ;
158 [label="gini = 0.5\nsamples = 2\nvalue = [1, 1]"] ;
157 -> 158 ;
159 [label="gini = 0.0\nsamples = 1\nvalue = [1, 0]"] ;
157 -> 159 ;
160 [label="gini = 0.0\nsamples = 4\nvalue = [4, 0]"] ;
152 -> 160 ;
161 [label="X[3] <= 8.135\ngini = 0.123\nsamples = 106\nvalue = [99, 7]"] ;
151 -> 161 ;
162 [label="X[3] <= 8.081\ngini = 0.162\nsamples = 79\nvalue = [72, 7]"] ;
161 -> 162 ;
163 [label="X[1] <= 8.0\ngini = 0.142\nsamples = 78\nvalue = [72, 6]"] ;
162 -> 163 ;
164 [label="X[3] <= 7.802\ngini = 0.078\nsamples = 49\nvalue = [47, 2]"] ;
163 -> 164 ;
165 [label="X[3] <= 7.762\ngini = 0.172\nsamples = 21\nvalue = [19, 2]"] ;
164 -> 165 ;
166 [label="X[3] <= 7.744\ngini = 0.1\nsamples = 19\nvalue = [18, 1]"] ;
165 -> 166 ;
167 [label="gini = 0.0\nsamples = 9\nvalue = [9, 0]"] ;
166 -> 167 ;
168 [label="gini = 0.18\nsamples = 10\nvalue = [9, 1]"] ;
166 -> 168 ;
169 [label="gini = 0.5\nsamples = 2\nvalue = [1, 1]"] ;
165 -> 169 ;
170 [label="gini = 0.0\nsamples = 28\nvalue = [28, 0]"] ;
164 -> 170 ;
171 [label="X[3] <= 7.988\ngini = 0.238\nsamples = 29\nvalue = [25, 4]"] ;
163 -> 171 ;
172 [label="X[1] <= 20.75\ngini = 0.091\nsamples = 21\nvalue = [20, 1]"] ;
171 -> 172 ;
173 [label="gini = 0.0\nsamples = 13\nvalue = [13, 0]"] ;
172 -> 173 ;
174 [label="X[3] <= 7.798\ngini = 0.219\nsamples = 8\nvalue = [7, 1]"] ;
172 -> 174 ;
175 [label="X[3] <= 7.785\ngini = 0.375\nsamples = 4\nvalue = [3, 1]"] ;
174 -> 175 ;
176 [label="gini = 0.0\nsamples = 3\nvalue = [3, 0]"] ;
175 -> 176 ;
177 [label="gini = 0.0\nsamples = 1\nvalue = [0, 1]"] ;
175 -> 177 ;
178 [label="gini = 0.0\nsamples = 4\nvalue = [4, 0]"] ;
174 -> 178 ;
179 [label="X[1] <= 19.5\ngini = 0.469\nsamples = 8\nvalue = [5, 3]"] ;
171 -> 179 ;
180 [label="X[1] <= 17.0\ngini = 0.48\nsamples = 5\nvalue = [2, 3]"] ;
179 -> 180 ;
181 [label="gini = 0.5\nsamples = 2\nvalue = [1, 1]"] ;
180 -> 181 ;
182 [label="X[1] <= 18.5\ngini = 0.444\nsamples = 3\nvalue = [1, 2]"] ;
180 -> 182 ;
183 [label="gini = 0.0\nsamples = 1\nvalue = [0, 1]"] ;
182 -> 183 ;
184 [label="gini = 0.5\nsamples = 2\nvalue = [1, 1]"] ;
182 -> 184 ;
185 [label="gini = 0.0\nsamples = 3\nvalue = [3, 0]"] ;
179 -> 185 ;
186 [label="gini = 0.0\nsamples = 1\nvalue = [0, 1]"] ;
162 -> 186 ;
187 [label="gini = 0.0\nsamples = 27\nvalue = [27, 0]"] ;
161 -> 187 ;
188 [label="X[3] <= 11.371\ngini = 0.355\nsamples = 13\nvalue = [10, 3]"] ;
150 -> 188 ;
189 [label="X[1] <= 6.0\ngini = 0.444\nsamples = 3\nvalue = [1, 2]"] ;
188 -> 189 ;
190 [label="gini = 0.0\nsamples = 1\nvalue = [1, 0]"] ;
189 -> 190 ;
191 [label="gini = 0.0\nsamples = 2\nvalue = [0, 2]"] ;
189 -> 191 ;
192 [label="X[3] <= 22.465\ngini = 0.18\nsamples = 10\nvalue = [9, 1]"] ;
188 -> 192 ;
193 [label="gini = 0.0\nsamples = 8\nvalue = [8, 0]"] ;
192 -> 193 ;
194 [label="X[3] <= 23.7\ngini = 0.5\nsamples = 2\nvalue = [1, 1]"] ;
192 -> 194 ;
195 [label="gini = 0.0\nsamples = 1\nvalue = [0, 1]"] ;
194 -> 195 ;
196 [label="gini = 0.0\nsamples = 1\nvalue = [1, 0]"] ;
194 -> 196 ;
197 [label="gini = 0.0\nsamples = 29\nvalue = [29, 0]"] ;
149 -> 197 ;
198 [label="X[3] <= 7.01\ngini = 0.242\nsamples = 71\nvalue = [61, 10]"] ;
134 -> 198 ;
199 [label="gini = 0.0\nsamples = 2\nvalue = [0, 2]"] ;
198 -> 199 ;
200 [label="X[2] <= 2.5\ngini = 0.205\nsamples = 69\nvalue = [61, 8]"] ;
198 -> 200 ;
201 [label="gini = 0.0\nsamples = 18\nvalue = [18, 0]"] ;
200 -> 201 ;
202 [label="X[3] <= 7.746\ngini = 0.265\nsamples = 51\nvalue = [43, 8]"] ;
200 -> 202 ;
203 [label="gini = 0.0\nsamples = 11\nvalue = [11, 0]"] ;
202 -> 203 ;
204 [label="X[3] <= 7.762\ngini = 0.32\nsamples = 40\nvalue = [32, 8]"] ;
202 -> 204 ;
205 [label="gini = 0.0\nsamples = 1\nvalue = [0, 1]"] ;
204 -> 205 ;
206 [label="X[3] <= 18.294\ngini = 0.295\nsamples = 39\nvalue = [32, 7]"] ;
204 -> 206 ;
207 [label="X[3] <= 7.825\ngini = 0.272\nsamples = 37\nvalue = [31, 6]"] ;
206 -> 207 ;
208 [label="X[1] <= 27.5\ngini = 0.444\nsamples = 6\nvalue = [4, 2]"] ;
207 -> 208 ;
209 [label="X[1] <= 26.5\ngini = 0.5\nsamples = 4\nvalue = [2, 2]"] ;
208 -> 209 ;
210 [label="X[1] <= 25.5\ngini = 0.444\nsamples = 3\nvalue = [2, 1]"] ;
209 -> 210 ;
211 [label="gini = 0.5\nsamples = 2\nvalue = [1, 1]"] ;
210 -> 211 ;
212 [label="gini = 0.0\nsamples = 1\nvalue = [1, 0]"] ;
210 -> 212 ;
213 [label="gini = 0.0\nsamples = 1\nvalue = [0, 1]"] ;
209 -> 213 ;
214 [label="gini = 0.0\nsamples = 2\nvalue = [2, 0]"] ;
208 -> 214 ;
215 [label="X[1] <= 28.75\ngini = 0.225\nsamples = 31\nvalue = [27, 4]"] ;
207 -> 215 ;
216 [label="X[3] <= 8.356\ngini = 0.095\nsamples = 20\nvalue = [19, 1]"] ;
215 -> 216 ;
217 [label="gini = 0.0\nsamples = 11\nvalue = [11, 0]"] ;
216 -> 217 ;
218 [label="X[3] <= 9.081\ngini = 0.198\nsamples = 9\nvalue = [8, 1]"] ;
216 -> 218 ;
219 [label="X[1] <= 26.5\ngini = 0.5\nsamples = 2\nvalue = [1, 1]"] ;
218 -> 219 ;
220 [label="gini = 0.0\nsamples = 1\nvalue = [1, 0]"] ;
219 -> 220 ;
221 [label="gini = 0.0\nsamples = 1\nvalue = [0, 1]"] ;
219 -> 221 ;
222 [label="gini = 0.0\nsamples = 7\nvalue = [7, 0]"] ;
218 -> 222 ;
223 [label="X[3] <= 9.492\ngini = 0.397\nsamples = 11\nvalue = [8, 3]"] ;
215 -> 223 ;
224 [label="X[3] <= 7.973\ngini = 0.219\nsamples = 8\nvalue = [7, 1]"] ;
223 -> 224 ;
225 [label="X[1] <= 29.5\ngini = 0.444\nsamples = 3\nvalue = [2, 1]"] ;
224 -> 225 ;
226 [label="X[3] <= 7.885\ngini = 0.5\nsamples = 2\nvalue = [1, 1]"] ;
225 -> 226 ;
227 [label="gini = 0.0\nsamples = 1\nvalue = [1, 0]"] ;
226 -> 227 ;
228 [label="gini = 0.0\nsamples = 1\nvalue = [0, 1]"] ;
226 -> 228 ;
229 [label="gini = 0.0\nsamples = 1\nvalue = [1, 0]"] ;
225 -> 229 ;
230 [label="gini = 0.0\nsamples = 5\nvalue = [5, 0]"] ;
224 -> 230 ;
231 [label="X[3] <= 12.8\ngini = 0.444\nsamples = 3\nvalue = [1, 2]"] ;
223 -> 231 ;
232 [label="gini = 0.0\nsamples = 2\nvalue = [0, 2]"] ;
231 -> 232 ;
233 [label="gini = 0.0\nsamples = 1\nvalue = [1, 0]"] ;
231 -> 233 ;
234 [label="X[1] <= 27.0\ngini = 0.5\nsamples = 2\nvalue = [1, 1]"] ;
206 -> 234 ;
235 [label="gini = 0.0\nsamples = 1\nvalue = [0, 1]"] ;
234 -> 235 ;
236 [label="gini = 0.0\nsamples = 1\nvalue = [1, 0]"] ;
234 -> 236 ;
237 [label="X[3] <= 7.815\ngini = 0.469\nsamples = 16\nvalue = [10, 6]"] ;
133 -> 237 ;
238 [label="gini = 0.0\nsamples = 3\nvalue = [3, 0]"] ;
237 -> 238 ;
239 [label="X[3] <= 7.875\ngini = 0.497\nsamples = 13\nvalue = [7, 6]"] ;
237 -> 239 ;
240 [label="gini = 0.0\nsamples = 1\nvalue = [0, 1]"] ;
239 -> 240 ;
241 [label="X[3] <= 20.925\ngini = 0.486\nsamples = 12\nvalue = [7, 5]"] ;
239 -> 241 ;
242 [label="X[1] <= 31.5\ngini = 0.463\nsamples = 11\nvalue = [7, 4]"] ;
241 -> 242 ;
243 [label="X[3] <= 9.212\ngini = 0.444\nsamples = 3\nvalue = [1, 2]"] ;
242 -> 243 ;
244 [label="gini = 0.0\nsamples = 1\nvalue = [0, 1]"] ;
243 -> 244 ;
245 [label="X[3] <= 11.75\ngini = 0.5\nsamples = 2\nvalue = [1, 1]"] ;
243 -> 245 ;
246 [label="gini = 0.0\nsamples = 1\nvalue = [1, 0]"] ;
245 -> 246 ;
247 [label="gini = 0.0\nsamples = 1\nvalue = [0, 1]"] ;
245 -> 247 ;
248 [label="X[3] <= 8.206\ngini = 0.375\nsamples = 8\nvalue = [6, 2]"] ;
242 -> 248 ;
249 [label="X[3] <= 7.988\ngini = 0.48\nsamples = 5\nvalue = [3, 2]"] ;
248 -> 249 ;
250 [label="X[3] <= 7.91\ngini = 0.375\nsamples = 4\nvalue = [3, 1]"] ;
249 -> 250 ;
251 [label="gini = 0.0\nsamples = 1\nvalue = [1, 0]"] ;
250 -> 251 ;
252 [label="gini = 0.444\nsamples = 3\nvalue = [2, 1]"] ;
250 -> 252 ;
253 [label="gini = 0.0\nsamples = 1\nvalue = [0, 1]"] ;
249 -> 253 ;
254 [label="gini = 0.0\nsamples = 3\nvalue = [3, 0]"] ;
248 -> 254 ;
255 [label="gini = 0.0\nsamples = 1\nvalue = [0, 1]"] ;
241 -> 255 ;
256 [label="X[3] <= 7.91\ngini = 0.117\nsamples = 96\nvalue = [90, 6]"] ;
132 -> 256 ;
257 [label="gini = 0.0\nsamples = 36\nvalue = [36, 0]"] ;
256 -> 257 ;
258 [label="X[3] <= 7.988\ngini = 0.18\nsamples = 60\nvalue = [54, 6]"] ;
256 -> 258 ;
259 [label="X[1] <= 38.0\ngini = 0.5\nsamples = 4\nvalue = [2, 2]"] ;
258 -> 259 ;
260 [label="gini = 0.0\nsamples = 1\nvalue = [1, 0]"] ;
259 -> 260 ;
261 [label="X[1] <= 41.5\ngini = 0.444\nsamples = 3\nvalue = [1, 2]"] ;
259 -> 261 ;
262 [label="gini = 0.5\nsamples = 2\nvalue = [1, 1]"] ;
261 -> 262 ;
263 [label="gini = 0.0\nsamples = 1\nvalue = [0, 1]"] ;
261 -> 263 ;
264 [label="X[3] <= 13.25\ngini = 0.133\nsamples = 56\nvalue = [52, 4]"] ;
258 -> 264 ;
265 [label="X[1] <= 59.5\ngini = 0.193\nsamples = 37\nvalue = [33, 4]"] ;
264 -> 265 ;
266 [label="X[3] <= 12.938\ngini = 0.161\nsamples = 34\nvalue = [31, 3]"] ;
265 -> 266 ;
267 [label="X[1] <= 44.5\ngini = 0.083\nsamples = 23\nvalue = [22, 1]"] ;
266 -> 267 ;
268 [label="gini = 0.0\nsamples = 16\nvalue = [16, 0]"] ;
267 -> 268 ;
269 [label="X[1] <= 46.0\ngini = 0.245\nsamples = 7\nvalue = [6, 1]"] ;
267 -> 269 ;
270 [label="gini = 0.0\nsamples = 1\nvalue = [0, 1]"] ;
269 -> 270 ;
271 [label="gini = 0.0\nsamples = 6\nvalue = [6, 0]"] ;
269 -> 271 ;
272 [label="X[1] <= 45.0\ngini = 0.298\nsamples = 11\nvalue = [9, 2]"] ;
266 -> 272 ;
273 [label="X[1] <= 40.5\ngini = 0.375\nsamples = 8\nvalue = [6, 2]"] ;
272 -> 273 ;
274 [label="X[1] <= 35.0\ngini = 0.278\nsamples = 6\nvalue = [5, 1]"] ;
273 -> 274 ;
275 [label="gini = 0.444\nsamples = 3\nvalue = [2, 1]"] ;
274 -> 275 ;
276 [label="gini = 0.0\nsamples = 3\nvalue = [3, 0]"] ;
274 -> 276 ;
277 [label="gini = 0.5\nsamples = 2\nvalue = [1, 1]"] ;
273 -> 277 ;
278 [label="gini = 0.0\nsamples = 3\nvalue = [3, 0]"] ;
272 -> 278 ;
279 [label="X[1] <= 64.0\ngini = 0.444\nsamples = 3\nvalue = [2, 1]"] ;
265 -> 279 ;
280 [label="gini = 0.0\nsamples = 1\nvalue = [0, 1]"] ;
279 -> 280 ;
281 [label="gini = 0.0\nsamples = 2\nvalue = [2, 0]"] ;
279 -> 281 ;
282 [label="gini = 0.0\nsamples = 19\nvalue = [19, 0]"] ;
264 -> 282 ;
283 [label="X[1] <= 12.0\ngini = 0.49\nsamples = 35\nvalue = [20, 15]"] ;
131 -> 283 ;
284 [label="X[4] <= 2.0\ngini = 0.291\nsamples = 17\nvalue = [3, 14]"] ;
283 -> 284 ;
285 [label="X[3] <= 22.013\ngini = 0.124\nsamples = 15\nvalue = [1, 14]"] ;
284 -> 285 ;
286 [label="gini = 0.0\nsamples = 12\nvalue = [0, 12]"] ;
285 -> 286 ;
287 [label="X[2] <= 2.5\ngini = 0.444\nsamples = 3\nvalue = [1, 2]"] ;
285 -> 287 ;
288 [label="gini = 0.0\nsamples = 2\nvalue = [0, 2]"] ;
287 -> 288 ;
289 [label="gini = 0.0\nsamples = 1\nvalue = [1, 0]"] ;
287 -> 289 ;
290 [label="gini = 0.0\nsamples = 2\nvalue = [2, 0]"] ;
284 -> 290 ;
291 [label="X[1] <= 21.5\ngini = 0.105\nsamples = 18\nvalue = [17, 1]"] ;
283 -> 291 ;
292 [label="X[1] <= 19.0\ngini = 0.278\nsamples = 6\nvalue = [5, 1]"] ;
291 -> 292 ;
293 [label="gini = 0.0\nsamples = 5\nvalue = [5, 0]"] ;
292 -> 293 ;
294 [label="gini = 0.0\nsamples = 1\nvalue = [0, 1]"] ;
292 -> 294 ;
295 [label="gini = 0.0\nsamples = 12\nvalue = [12, 0]"] ;
291 -> 295 ;
296 [label="X[4] <= 2.5\ngini = 0.448\nsamples = 162\nvalue = [107, 55]"] ;
130 -> 296 ;
297 [label="X[1] <= 53.0\ngini = 0.475\nsamples = 139\nvalue = [85, 54]"] ;
296 -> 297 ;
298 [label="X[3] <= 26.775\ngini = 0.492\nsamples = 117\nvalue = [66, 51]"] ;
297 -> 298 ;
299 [label="X[1] <= 14.0\ngini = 0.26\nsamples = 13\nvalue = [2, 11]"] ;
298 -> 299 ;
300 [label="gini = 0.5\nsamples = 2\nvalue = [1, 1]"] ;
299 -> 300 ;
301 [label="X[1] <= 43.5\ngini = 0.165\nsamples = 11\nvalue = [1, 10]"] ;
299 -> 301 ;
302 [label="gini = 0.0\nsamples = 7\nvalue = [0, 7]"] ;
301 -> 302 ;
303 [label="X[1] <= 46.5\ngini = 0.375\nsamples = 4\nvalue = [1, 3]"] ;
301 -> 303 ;
304 [label="gini = 0.5\nsamples = 2\nvalue = [1, 1]"] ;
303 -> 304 ;
305 [label="gini = 0.0\nsamples = 2\nvalue = [0, 2]"] ;
303 -> 305 ;
306 [label="X[3] <= 28.75\ngini = 0.473\nsamples = 104\nvalue = [64, 40]"] ;
298 -> 306 ;
307 [label="gini = 0.0\nsamples = 9\nvalue = [9, 0]"] ;
306 -> 307 ;
308 [label="X[3] <= 30.598\ngini = 0.488\nsamples = 95\nvalue = [55, 40]"] ;
306 -> 308 ;
309 [label="X[1] <= 28.0\ngini = 0.397\nsamples = 11\nvalue = [3, 8]"] ;
308 -> 309 ;
310 [label="gini = 0.0\nsamples = 6\nvalue = [0, 6]"] ;
309 -> 310 ;
311 [label="X[3] <= 30.285\ngini = 0.48\nsamples = 5\nvalue = [3, 2]"] ;
309 -> 311 ;
312 [label="gini = 0.0\nsamples = 3\nvalue = [3, 0]"] ;
311 -> 312 ;
313 [label="gini = 0.0\nsamples = 2\nvalue = [0, 2]"] ;
311 -> 313 ;
314 [label="X[3] <= 52.277\ngini = 0.472\nsamples = 84\nvalue = [52, 32]"] ;
308 -> 314 ;
315 [label="X[4] <= 1.5\ngini = 0.366\nsamples = 29\nvalue = [22, 7]"] ;
314 -> 315 ;
316 [label="X[1] <= 47.5\ngini = 0.337\nsamples = 28\nvalue = [22, 6]"] ;
315 -> 316 ;
317 [label="X[3] <= 37.752\ngini = 0.302\nsamples = 27\nvalue = [22, 5]"] ;
316 -> 317 ;
318 [label="X[3] <= 35.25\ngini = 0.444\nsamples = 15\nvalue = [10, 5]"] ;
317 -> 318 ;
319 [label="X[1] <= 39.5\ngini = 0.219\nsamples = 8\nvalue = [7, 1]"] ;
318 -> 319 ;
320 [label="gini = 0.0\nsamples = 6\nvalue = [6, 0]"] ;
319 -> 320 ;
321 [label="X[3] <= 32.51\ngini = 0.5\nsamples = 2\nvalue = [1, 1]"] ;
319 -> 321 ;
322 [label="gini = 0.0\nsamples = 1\nvalue = [0, 1]"] ;
321 -> 322 ;
323 [label="gini = 0.0\nsamples = 1\nvalue = [1, 0]"] ;
321 -> 323 ;
324 [label="X[1] <= 13.5\ngini = 0.49\nsamples = 7\nvalue = [3, 4]"] ;
318 -> 324 ;
325 [label="gini = 0.0\nsamples = 3\nvalue = [0, 3]"] ;
324 -> 325 ;
326 [label="X[4] <= 0.5\ngini = 0.375\nsamples = 4\nvalue = [3, 1]"] ;
324 -> 326 ;
327 [label="X[1] <= 36.5\ngini = 0.5\nsamples = 2\nvalue = [1, 1]"] ;
326 -> 327 ;
328 [label="gini = 0.0\nsamples = 1\nvalue = [0, 1]"] ;
327 -> 328 ;
329 [label="gini = 0.0\nsamples = 1\nvalue = [1, 0]"] ;
327 -> 329 ;
330 [label="gini = 0.0\nsamples = 2\nvalue = [2, 0]"] ;
326 -> 330 ;
331 [label="gini = 0.0\nsamples = 12\nvalue = [12, 0]"] ;
317 -> 331 ;
332 [label="gini = 0.0\nsamples = 1\nvalue = [0, 1]"] ;
316 -> 332 ;
333 [label="gini = 0.0\nsamples = 1\nvalue = [0, 1]"] ;
315 -> 333 ;
334 [label="X[3] <= 59.088\ngini = 0.496\nsamples = 55\nvalue = [30, 25]"] ;
314 -> 334 ;
335 [label="X[1] <= 49.5\ngini = 0.43\nsamples = 16\nvalue = [5, 11]"] ;
334 -> 335 ;
336 [label="X[1] <= 22.0\ngini = 0.391\nsamples = 15\nvalue = [4, 11]"] ;
335 -> 336 ;
337 [label="X[3] <= 54.798\ngini = 0.5\nsamples = 4\nvalue = [2, 2]"] ;
336 -> 337 ;
338 [label="gini = 0.0\nsamples = 1\nvalue = [1, 0]"] ;
337 -> 338 ;
339 [label="gini = 0.444\nsamples = 3\nvalue = [1, 2]"] ;
337 -> 339 ;
340 [label="X[1] <= 27.5\ngini = 0.298\nsamples = 11\nvalue = [2, 9]"] ;
336 -> 340 ;
341 [label="gini = 0.0\nsamples = 3\nvalue = [0, 3]"] ;
340 -> 341 ;
342 [label="X[1] <= 29.5\ngini = 0.375\nsamples = 8\nvalue = [2, 6]"] ;
340 -> 342 ;
343 [label="gini = 0.0\nsamples = 1\nvalue = [1, 0]"] ;
342 -> 343 ;
344 [label="X[3] <= 54.798\ngini = 0.245\nsamples = 7\nvalue = [1, 6]"] ;
342 -> 344 ;
345 [label="X[3] <= 52.827\ngini = 0.444\nsamples = 3\nvalue = [1, 2]"] ;
344 -> 345 ;
346 [label="gini = 0.0\nsamples = 2\nvalue = [0, 2]"] ;
345 -> 346 ;
347 [label="gini = 0.0\nsamples = 1\nvalue = [1, 0]"] ;
345 -> 347 ;
348 [label="gini = 0.0\nsamples = 4\nvalue = [0, 4]"] ;
344 -> 348 ;
349 [label="gini = 0.0\nsamples = 1\nvalue = [1, 0]"] ;
335 -> 349 ;
350 [label="X[5] <= 1.5\ngini = 0.46\nsamples = 39\nvalue = [25, 14]"] ;
334 -> 350 ;
351 [label="X[3] <= 379.925\ngini = 0.397\nsamples = 33\nvalue = [24, 9]"] ;
350 -> 351 ;
352 [label="X[1] <= 22.5\ngini = 0.35\nsamples = 31\nvalue = [24, 7]"] ;
351 -> 352 ;
353 [label="gini = 0.0\nsamples = 8\nvalue = [8, 0]"] ;
352 -> 353 ;
354 [label="X[1] <= 23.5\ngini = 0.423\nsamples = 23\nvalue = [16, 7]"] ;
352 -> 354 ;
355 [label="gini = 0.0\nsamples = 1\nvalue = [0, 1]"] ;
354 -> 355 ;
356 [label="X[3] <= 75.115\ngini = 0.397\nsamples = 22\nvalue = [16, 6]"] ;
354 -> 356 ;
357 [label="gini = 0.0\nsamples = 5\nvalue = [5, 0]"] ;
356 -> 357 ;
358 [label="X[3] <= 77.79\ngini = 0.457\nsamples = 17\nvalue = [11, 6]"] ;
356 -> 358 ;
359 [label="gini = 0.0\nsamples = 2\nvalue = [0, 2]"] ;
358 -> 359 ;
360 [label="X[3] <= 86.29\ngini = 0.391\nsamples = 15\nvalue = [11, 4]"] ;
358 -> 360 ;
361 [label="gini = 0.0\nsamples = 6\nvalue = [6, 0]"] ;
360 -> 361 ;
362 [label="X[5] <= 0.5\ngini = 0.494\nsamples = 9\nvalue = [5, 4]"] ;
360 -> 362 ;
363 [label="X[1] <= 41.0\ngini = 0.444\nsamples = 6\nvalue = [2, 4]"] ;
362 -> 363 ;
364 [label="gini = 0.0\nsamples = 2\nvalue = [0, 2]"] ;
363 -> 364 ;
365 [label="X[3] <= 89.552\ngini = 0.5\nsamples = 4\nvalue = [2, 2]"] ;
363 -> 365 ;
366 [label="gini = 0.0\nsamples = 1\nvalue = [0, 1]"] ;
365 -> 366 ;
367 [label="X[3] <= 120.037\ngini = 0.444\nsamples = 3\nvalue = [2, 1]"] ;
365 -> 367 ;
368 [label="gini = 0.0\nsamples = 2\nvalue = [2, 0]"] ;
367 -> 368 ;
369 [label="gini = 0.0\nsamples = 1\nvalue = [0, 1]"] ;
367 -> 369 ;
370 [label="gini = 0.0\nsamples = 3\nvalue = [3, 0]"] ;
362 -> 370 ;
371 [label="gini = 0.0\nsamples = 2\nvalue = [0, 2]"] ;
351 -> 371 ;
372 [label="X[3] <= 181.525\ngini = 0.278\nsamples = 6\nvalue = [1, 5]"] ;
350 -> 372 ;
373 [label="gini = 0.0\nsamples = 5\nvalue = [0, 5]"] ;
372 -> 373 ;
374 [label="gini = 0.0\nsamples = 1\nvalue = [1, 0]"] ;
372 -> 374 ;
375 [label="X[1] <= 75.5\ngini = 0.236\nsamples = 22\nvalue = [19, 3]"] ;
297 -> 375 ;
376 [label="X[3] <= 35.077\ngini = 0.172\nsamples = 21\nvalue = [19, 2]"] ;
375 -> 376 ;
377 [label="gini = 0.0\nsamples = 11\nvalue = [11, 0]"] ;
376 -> 377 ;
378 [label="X[3] <= 37.25\ngini = 0.32\nsamples = 10\nvalue = [8, 2]"] ;
376 -> 378 ;
379 [label="gini = 0.0\nsamples = 1\nvalue = [0, 1]"] ;
378 -> 379 ;
380 [label="X[3] <= 78.244\ngini = 0.198\nsamples = 9\nvalue = [8, 1]"] ;
378 -> 380 ;
381 [label="gini = 0.0\nsamples = 6\nvalue = [6, 0]"] ;
380 -> 381 ;
382 [label="X[5] <= 1.5\ngini = 0.444\nsamples = 3\nvalue = [2, 1]"] ;
380 -> 382 ;
383 [label="gini = 0.0\nsamples = 1\nvalue = [0, 1]"] ;
382 -> 383 ;
384 [label="gini = 0.0\nsamples = 2\nvalue = [2, 0]"] ;
382 -> 384 ;
385 [label="gini = 0.0\nsamples = 1\nvalue = [0, 1]"] ;
375 -> 385 ;
386 [label="X[3] <= 35.537\ngini = 0.083\nsamples = 23\nvalue = [22, 1]"] ;
296 -> 386 ;
387 [label="X[1] <= 3.5\ngini = 0.198\nsamples = 9\nvalue = [8, 1]"] ;
386 -> 387 ;
388 [label="X[1] <= 2.5\ngini = 0.5\nsamples = 2\nvalue = [1, 1]"] ;
387 -> 388 ;
389 [label="gini = 0.0\nsamples = 1\nvalue = [1, 0]"] ;
388 -> 389 ;
390 [label="gini = 0.0\nsamples = 1\nvalue = [0, 1]"] ;
388 -> 390 ;
391 [label="gini = 0.0\nsamples = 7\nvalue = [7, 0]"] ;
387 -> 391 ;
392 [label="gini = 0.0\nsamples = 14\nvalue = [14, 0]"] ;
386 -> 392 ;
}
